digraph Tree {
node [shape=box, style="filled, rounded", color="black", fontname="helvetica"] ;
edge [fontname="helvetica"] ;
0 [label=<tenure &le; 17.5<br/>gini = 0.39<br/>samples = 5625<br/>value = [4130, 1495]<br/>class = Not Churn>, fillcolor="#eeaf81"] ;
1 [label=<InternetService_Fiber optic &le; 0.5<br/>gini = 0.495<br/>samples = 2114<br/>value = [1160, 954]<br/>class = Not Churn>, fillcolor="#fae9dc"] ;
0 -> 1 [labeldistance=2.5, labelangle=45, headlabel="True"] ;
2 [label=<tenure &le; 5.5<br/>gini = 0.405<br/>samples = 1207<br/>value = [866, 341]<br/>class = Not Churn>, fillcolor="#efb387"] ;
1 -> 2 ;
3 [label=<StreamingMovies_No internet service &le; 0.5<br/>gini = 0.479<br/>samples = 626<br/>value = [377, 249]<br/>class = Not Churn>, fillcolor="#f6d4bc"] ;
2 -> 3 ;
4 [label="(...)", fillcolor="#C0C0C0"] ;
3 -> 4 ;
271 [label="(...)", fillcolor="#C0C0C0"] ;
3 -> 271 ;
426 [label=<TechSupport_No internet service &le; 0.5<br/>gini = 0.267<br/>samples = 581<br/>value = [489, 92]<br/>class = Not Churn>, fillcolor="#ea995e"] ;
2 -> 426 ;
427 [label="(...)", fillcolor="#C0C0C0"] ;
426 -> 427 ;
584 [label="(...)", fillcolor="#C0C0C0"] ;
426 -> 584 ;
661 [label=<TotalCharges &le; 120.0<br/>gini = 0.438<br/>samples = 907<br/>value = [294, 613]<br/>class = Churn>, fillcolor="#98ccf1"] ;
1 -> 661 ;
662 [label=<TechSupport_Yes &le; 0.5<br/>gini = 0.245<br/>samples = 189<br/>value = [27, 162]<br/>class = Churn>, fillcolor="#5aade9"] ;
661 -> 662 ;
663 [label="(...)", fillcolor="#C0C0C0"] ;
662 -> 663 ;
762 [label="(...)", fillcolor="#C0C0C0"] ;
662 -> 762 ;
767 [label=<MonthlyCharges &le; 83.4<br/>gini = 0.467<br/>samples = 718<br/>value = [267, 451]<br/>class = Churn>, fillcolor="#aed7f4"] ;
661 -> 767 ;
768 [label="(...)", fillcolor="#C0C0C0"] ;
767 -> 768 ;
983 [label="(...)", fillcolor="#C0C0C0"] ;
767 -> 983 ;
1190 [label=<InternetService_Fiber optic &le; 0.5<br/>gini = 0.261<br/>samples = 3511<br/>value = [2970, 541]<br/>class = Not Churn>, fillcolor="#ea985d"] ;
0 -> 1190 [labeldistance=2.5, labelangle=-45, headlabel="False"] ;
1191 [label=<Contract_Two year &le; 0.5<br/>gini = 0.106<br/>samples = 1946<br/>value = [1837, 109]<br/>class = Not Churn>, fillcolor="#e78845"] ;
1190 -> 1191 ;
1192 [label=<MultipleLines_No phone service &le; 0.5<br/>gini = 0.172<br/>samples = 1021<br/>value = [924, 97]<br/>class = Not Churn>, fillcolor="#e88e4e"] ;
1191 -> 1192 ;
1193 [label="(...)", fillcolor="#C0C0C0"] ;
1192 -> 1193 ;
1366 [label="(...)", fillcolor="#C0C0C0"] ;
1192 -> 1366 ;
1461 [label=<PaymentMethod_Electronic check &le; 0.5<br/>gini = 0.026<br/>samples = 925<br/>value = [913, 12]<br/>class = Not Churn>, fillcolor="#e5833c"] ;
1191 -> 1461 ;
1462 [label="(...)", fillcolor="#C0C0C0"] ;
1461 -> 1462 ;
1503 [label="(...)", fillcolor="#C0C0C0"] ;
1461 -> 1503 ;
1518 [label=<tenure &le; 54.5<br/>gini = 0.4<br/>samples = 1565<br/>value = [1133, 432]<br/>class = Not Churn>, fillcolor="#efb184"] ;
1190 -> 1518 ;
1519 [label=<Contract_One year &le; 0.5<br/>gini = 0.467<br/>samples = 915<br/>value = [575, 340]<br/>class = Not Churn>, fillcolor="#f4ccae"] ;
1518 -> 1519 ;
1520 [label="(...)", fillcolor="#C0C0C0"] ;
1519 -> 1520 ;
1923 [label="(...)", fillcolor="#C0C0C0"] ;
1519 -> 1923 ;
2004 [label=<OnlineSecurity_Yes &le; 0.5<br/>gini = 0.243<br/>samples = 650<br/>value = [558, 92]<br/>class = Not Churn>, fillcolor="#e9965a"] ;
1518 -> 2004 ;
2005 [label="(...)", fillcolor="#C0C0C0"] ;
2004 -> 2005 ;
2158 [label="(...)", fillcolor="#C0C0C0"] ;
2004 -> 2158 ;
}
